<?xml version="1.0"?>
<opencv_storage>
<cascade>
  <stageType>BOOST</stageType>
  <featureType>HAAR</featureType>
  <height>30</height>
  <width>40</width>
  <stageParams>
    <boostType>GAB</boostType>
    <minHitRate>9.9900001287460327e-01</minHitRate>
    <maxFalseAlarm>5.0000000000000000e-01</maxFalseAlarm>
    <weightTrimRate>9.4999999999999996e-01</weightTrimRate>
    <maxDepth>1</maxDepth>
    <maxWeakCount>100</maxWeakCount></stageParams>
  <featureParams>
    <maxCatCount>0</maxCatCount>
    <featSize>1</featSize>
    <mode>ALL</mode></featureParams>
  <stageNum>13</stageNum>
  <stages>
    <!-- stage 0 -->
    <_>
      <maxWeakCount>2</maxWeakCount>
      <stageThreshold>-5.1217462867498398e-02</stageThreshold>
      <weakClassifiers>
        <_>
          <internalNodes>
            0 -1 25 -5.4782368242740631e-02</internalNodes>
          <leafValues>
            1. -9.4545453786849976e-01</leafValues></_>
        <_>
          <internalNodes>
            0 -1 8 5.0687426328659058e-01</internalNodes>
          <leafValues>
            -1. 8.9423710107803345e-01</leafValues></_></weakClassifiers></_>
    <!-- stage 1 -->
    <_>
      <maxWeakCount>2</maxWeakCount>
      <stageThreshold>-3.8799503445625305e-01</stageThreshold>
      <weakClassifiers>
        <_>
          <internalNodes>
            0 -1 2 4.5776817947626114e-02</internalNodes>
          <leafValues>
            -9.7979795932769775e-01 7.2588831186294556e-01</leafValues></_>
        <_>
          <internalNodes>
            0 -1 28 -2.6029199361801147e-02</internalNodes>
          <leafValues>
            5.9180295467376709e-01 -9.4764482975006104e-01</leafValues></_></weakClassifiers></_>
    <!-- stage 2 -->
    <_>
      <maxWeakCount>2</maxWeakCount>
      <stageThreshold>-1.7855130136013031e-01</stageThreshold>
      <weakClassifiers>
        <_>
          <internalNodes>
            0 -1 9 8.4863051772117615e-02</internalNodes>
          <leafValues>
            -9.8675495386123657e-01 7.8125000000000000e-01</leafValues></_>
        <_>
          <internalNodes>
            0 -1 15 2.2906377911567688e-02</internalNodes>
          <leafValues>
            -9.0664356946945190e-01 8.0820363759994507e-01</leafValues></_></weakClassifiers></_>
    <!-- stage 3 -->
    <_>
      <maxWeakCount>1</maxWeakCount>
      <stageThreshold>8.3068782091140747e-01</stageThreshold>
      <weakClassifiers>
        <_>
          <internalNodes>
            0 -1 29 -2.2260886617004871e-03</internalNodes>
          <leafValues>
            -1. 8.3068782091140747e-01</leafValues></_></weakClassifiers></_>
    <!-- stage 4 -->
    <_>
      <maxWeakCount>2</maxWeakCount>
      <stageThreshold>-3.3451989293098450e-01</stageThreshold>
      <weakClassifiers>
        <_>
          <internalNodes>
            0 -1 20 -1.0178547352552414e-01</internalNodes>
          <leafValues>
            8.3892619609832764e-01 -7.9130434989929199e-01</leafValues></_>
        <_>
          <internalNodes>
            0 -1 22 8.6644559632986784e-04</internalNodes>
          <leafValues>
            -9.7082376480102539e-01 4.5678445696830750e-01</leafValues></_></weakClassifiers></_>
    <!-- stage 5 -->
    <_>
      <maxWeakCount>4</maxWeakCount>
      <stageThreshold>-1.7780150175094604e+00</stageThreshold>
      <weakClassifiers>
        <_>
          <internalNodes>
            0 -1 26 6.9566275924444199e-03</internalNodes>
          <leafValues>
            -8.5135138034820557e-01 5.2525252103805542e-01</leafValues></_>
        <_>
          <internalNodes>
            0 -1 0 2.8434423729777336e-02</internalNodes>
          <leafValues>
            -7.7015042304992676e-01 5.6596553325653076e-01</leafValues></_>
        <_>
          <internalNodes>
            0 -1 32 -5.0342024769634008e-04</internalNodes>
          <leafValues>
            7.5389939546585083e-01 -6.9967740774154663e-01</leafValues></_>
        <_>
          <internalNodes>
            0 -1 5 1.0828971862792969e-03</internalNodes>
          <leafValues>
            -8.8114970922470093e-01 5.4316413402557373e-01</leafValues></_></weakClassifiers></_>
    <!-- stage 6 -->
    <_>
      <maxWeakCount>2</maxWeakCount>
      <stageThreshold>-4.9909979104995728e-01</stageThreshold>
      <weakClassifiers>
        <_>
          <internalNodes>
            0 -1 24 2.4585807695984840e-02</internalNodes>
          <leafValues>
            -8.7713313102722168e-01 5.4228854179382324e-01</leafValues></_>
        <_>
          <internalNodes>
            0 -1 27 -2.6449481025338173e-02</internalNodes>
          <leafValues>
            3.7803331017494202e-01 -9.1796189546585083e-01</leafValues></_></weakClassifiers></_>
    <!-- stage 7 -->
    <_>
      <maxWeakCount>3</maxWeakCount>
      <stageThreshold>-1.1607437133789063e+00</stageThreshold>
      <weakClassifiers>
        <_>
          <internalNodes>
            0 -1 4 2.3313131183385849e-02</internalNodes>
          <leafValues>
            -8.8395905494689941e-01 5.5223882198333740e-01</leafValues></_>
        <_>
          <internalNodes>
            0 -1 17 5.0614390056580305e-04</internalNodes>
          <leafValues>
            -7.4151879549026489e-01 6.2314414978027344e-01</leafValues></_>
        <_>
          <internalNodes>
            0 -1 10 1.0707828216254711e-02</internalNodes>
          <leafValues>
            -8.9575022459030151e-01 4.6473413705825806e-01</leafValues></_></weakClassifiers></_>
    <!-- stage 8 -->
    <_>
      <maxWeakCount>4</maxWeakCount>
      <stageThreshold>-1.7385095357894897e+00</stageThreshold>
      <weakClassifiers>
        <_>
          <internalNodes>
            0 -1 11 4.3316295742988586e-01</internalNodes>
          <leafValues>
            -6.8091166019439697e-01 6.3636362552642822e-01</leafValues></_>
        <_>
          <internalNodes>
            0 -1 21 -1.0825168574228883e-03</internalNodes>
          <leafValues>
            -8.3956640958786011e-01 4.7080710530281067e-01</leafValues></_>
        <_>
          <internalNodes>
            0 -1 1 3.4129887819290161e-02</internalNodes>
          <leafValues>
            -6.5772485733032227e-01 5.7983887195587158e-01</leafValues></_>
        <_>
          <internalNodes>
            0 -1 13 -7.7793798409402370e-03</internalNodes>
          <leafValues>
            -9.7475689649581909e-01 4.3969345092773438e-01</leafValues></_></weakClassifiers></_>
    <!-- stage 9 -->
    <_>
      <maxWeakCount>4</maxWeakCount>
      <stageThreshold>-1.6255252361297607e+00</stageThreshold>
      <weakClassifiers>
        <_>
          <internalNodes>
            0 -1 14 -3.5751713439822197e-03</internalNodes>
          <leafValues>
            6.7375886440277100e-01 -6.8838524818420410e-01</leafValues></_>
        <_>
          <internalNodes>
            0 -1 31 -1.0834031854756176e-04</internalNodes>
          <leafValues>
            4.8747727274894714e-01 -8.1759303808212280e-01</leafValues></_>
        <_>
          <internalNodes>
            0 -1 3 1.7544907750561833e-03</internalNodes>
          <leafValues>
            -6.8611609935760498e-01 5.7412546873092651e-01</leafValues></_>
        <_>
          <internalNodes>
            0 -1 33 -1.6825337661430240e-04</internalNodes>
          <leafValues>
            5.2340096235275269e-01 -7.3850119113922119e-01</leafValues></_></weakClassifiers></_>
    <!-- stage 10 -->
    <_>
      <maxWeakCount>4</maxWeakCount>
      <stageThreshold>-9.9305927753448486e-01</stageThreshold>
      <weakClassifiers>
        <_>
          <internalNodes>
            0 -1 16 3.5134572535753250e-03</internalNodes>
          <leafValues>
            -7.8947371244430542e-01 4.8421052098274231e-01</leafValues></_>
        <_>
          <internalNodes>
            0 -1 7 -1.6547017730772495e-03</internalNodes>
          <leafValues>
            -9.4915628433227539e-01 2.8993460536003113e-01</leafValues></_>
        <_>
          <internalNodes>
            0 -1 12 2.9212734661996365e-03</internalNodes>
          <leafValues>
            -8.3484232425689697e-01 4.0059375762939453e-01</leafValues></_>
        <_>
          <internalNodes>
            0 -1 34 -2.0313018467277288e-03</internalNodes>
          <leafValues>
            -8.9411395788192749e-01 3.9999818801879883e-01</leafValues></_></weakClassifiers></_>
    <!-- stage 11 -->
    <_>
      <maxWeakCount>3</maxWeakCount>
      <stageThreshold>-1.1385294198989868e+00</stageThreshold>
      <weakClassifiers>
        <_>
          <internalNodes>
            0 -1 6 8.8678607717156410e-03</internalNodes>
          <leafValues>
            -8.5873603820800781e-01 3.6888888478279114e-01</leafValues></_>
        <_>
          <internalNodes>
            0 -1 23 -1.2213386071380228e-05</internalNodes>
          <leafValues>
            5.4061317443847656e-01 -6.5027058124542236e-01</leafValues></_>
        <_>
          <internalNodes>
            0 -1 30 -1.1387344449758530e-02</internalNodes>
          <leafValues>
            3.7047713994979858e-01 -1.</leafValues></_></weakClassifiers></_>
    <!-- stage 12 -->
    <_>
      <maxWeakCount>2</maxWeakCount>
      <stageThreshold>-3.8180136680603027e-01</stageThreshold>
      <weakClassifiers>
        <_>
          <internalNodes>
            0 -1 19 -7.1980603970587254e-03</internalNodes>
          <leafValues>
            -8.3974361419677734e-01 6.2637364864349365e-01</leafValues></_>
        <_>
          <internalNodes>
            0 -1 18 1.6080614179372787e-02</internalNodes>
          <leafValues>
            -9.6189272403717041e-01 4.5794221758842468e-01</leafValues></_></weakClassifiers></_></stages>
  <features>
    <_>
      <rects>
        <_>
          0 0 6 22 -1.</_>
        <_>
          3 0 3 22 2.</_></rects>
      <tilted>0</tilted></_>
    <_>
      <rects>
        <_>
          0 1 6 27 -1.</_>
        <_>
          3 1 3 27 2.</_></rects>
      <tilted>0</tilted></_>
    <_>
      <rects>
        <_>
          0 6 10 16 -1.</_>
        <_>
          5 6 5 16 2.</_></rects>
      <tilted>0</tilted></_>
    <_>
      <rects>
        <_>
          0 6 12 8 -1.</_>
        <_>
          0 8 12 4 2.</_></rects>
      <tilted>0</tilted></_>
    <_>
      <rects>
        <_>
          0 7 6 14 -1.</_>
        <_>
          3 7 3 14 2.</_></rects>
      <tilted>0</tilted></_>
    <_>
      <rects>
        <_>
          0 9 12 8 -1.</_>
        <_>
          0 11 12 4 2.</_></rects>
      <tilted>0</tilted></_>
    <_>
      <rects>
        <_>
          0 12 6 5 -1.</_>
        <_>
          3 12 3 5 2.</_></rects>
      <tilted>0</tilted></_>
    <_>
      <rects>
        <_>
          0 21 1 3 -1.</_>
        <_>
          0 22 1 1 2.</_></rects>
      <tilted>0</tilted></_>
    <_>
      <rects>
        <_>
          1 0 39 27 -1.</_>
        <_>
          14 9 13 9 9.</_></rects>
      <tilted>0</tilted></_>
    <_>
      <rects>
        <_>
          1 0 21 14 -1.</_>
        <_>
          1 7 21 7 2.</_></rects>
      <tilted>0</tilted></_>
    <_>
      <rects>
        <_>
          1 1 12 29 -1.</_>
        <_>
          4 1 6 29 2.</_></rects>
      <tilted>0</tilted></_>
    <_>
      <rects>
        <_>
          1 12 39 18 -1.</_>
        <_>
          14 18 13 6 9.</_></rects>
      <tilted>0</tilted></_>
    <_>
      <rects>
        <_>
          2 1 8 27 -1.</_>
        <_>
          4 1 4 27 2.</_></rects>
      <tilted>0</tilted></_>
    <_>
      <rects>
        <_>
          3 1 3 4 -1.</_>
        <_>
          4 1 1 4 2.</_></rects>
      <tilted>0</tilted></_>
    <_>
      <rects>
        <_>
          4 24 33 2 -1.</_>
        <_>
          4 25 33 1 2.</_></rects>
      <tilted>0</tilted></_>
    <_>
      <rects>
        <_>
          7 0 2 28 -1.</_>
        <_>
          7 7 2 14 2.</_></rects>
      <tilted>0</tilted></_>
    <_>
      <rects>
        <_>
          7 4 30 2 -1.</_>
        <_>
          7 5 30 1 2.</_></rects>
      <tilted>0</tilted></_>
    <_>
      <rects>
        <_>
          10 0 28 1 -1.</_>
        <_>
          24 0 14 1 2.</_></rects>
      <tilted>0</tilted></_>
    <_>
      <rects>
        <_>
          12 2 24 14 -1.</_>
        <_>
          18 2 12 14 2.</_></rects>
      <tilted>0</tilted></_>
    <_>
      <rects>
        <_>
          16 29 12 1 -1.</_>
        <_>
          20 29 4 1 2.</_></rects>
      <tilted>0</tilted></_>
    <_>
      <rects>
        <_>
          19 16 21 14 -1.</_>
        <_>
          19 23 21 7 2.</_></rects>
      <tilted>0</tilted></_>
    <_>
      <rects>
        <_>
          23 0 16 1 -1.</_>
        <_>
          31 0 8 1 2.</_></rects>
      <tilted>0</tilted></_>
    <_>
      <rects>
        <_>
          24 2 1 24 -1.</_>
        <_>
          24 2 1 12 2.</_></rects>
      <tilted>1</tilted></_>
    <_>
      <rects>
        <_>
          24 9 4 8 -1.</_>
        <_>
          24 13 4 4 2.</_></rects>
      <tilted>0</tilted></_>
    <_>
      <rects>
        <_>
          25 8 12 20 -1.</_>
        <_>
          25 13 12 10 2.</_></rects>
      <tilted>0</tilted></_>
    <_>
      <rects>
        <_>
          30 5 10 21 -1.</_>
        <_>
          35 5 5 21 2.</_></rects>
      <tilted>0</tilted></_>
    <_>
      <rects>
        <_>
          30 9 10 12 -1.</_>
        <_>
          30 12 10 6 2.</_></rects>
      <tilted>0</tilted></_>
    <_>
      <rects>
        <_>
          32 9 8 10 -1.</_>
        <_>
          36 9 4 10 2.</_></rects>
      <tilted>0</tilted></_>
    <_>
      <rects>
        <_>
          32 10 8 11 -1.</_>
        <_>
          36 10 4 11 2.</_></rects>
      <tilted>0</tilted></_>
    <_>
      <rects>
        <_>
          34 0 3 1 -1.</_>
        <_>
          35 0 1 1 2.</_></rects>
      <tilted>0</tilted></_>
    <_>
      <rects>
        <_>
          35 0 5 6 -1.</_>
        <_>
          35 2 5 2 2.</_></rects>
      <tilted>0</tilted></_>
    <_>
      <rects>
        <_>
          38 0 1 8 -1.</_>
        <_>
          38 4 1 4 2.</_></rects>
      <tilted>0</tilted></_>
    <_>
      <rects>
        <_>
          39 0 1 18 -1.</_>
        <_>
          39 9 1 9 2.</_></rects>
      <tilted>0</tilted></_>
    <_>
      <rects>
        <_>
          39 7 1 18 -1.</_>
        <_>
          39 16 1 9 2.</_></rects>
      <tilted>0</tilted></_>
    <_>
      <rects>
        <_>
          39 27 1 3 -1.</_>
        <_>
          39 28 1 1 2.</_></rects>
      <tilted>0</tilted></_></features></cascade>
</opencv_storage>
